let defaultBrain = {
  "levels": [
    {
      "inputs": [0.169801425386074, 0, 0, 0, 0.4564175831155093],
      "outputs": [1, 1, 1, 0, 1, 0],
      "biases": [
        -0.10122948554550489, -0.25182184603291, -0.47000264761524313,
        0.7927726194986262, -0.01428698407316982, 0.42593578719878217
      ],
      "weights": [
        [
          0.3271070899547088, 0.6426809079859439, -0.36387567417223204,
          0.008826827527196504, 0.31004135479145356, 0.7243304722845195
        ],
        [
          -0.4176045817820099, -0.6061883881398891, 0.2545713859142792,
          0.4911525083155906, 0.017690265316662134, 0.2594294047038695
        ],
        [
          0.5885656123046197, -0.5109477710429672, -0.3350639896252648,
          -0.8941241542874327, 0.17975884911712597, 0.03135246512709342
        ],
        [
          0.3508438282637153, -0.2450341828626692, 0.14930570319761455,
          0.19436556055589982, -0.6520156409916501, -0.6397828092243911
        ],
        [
          0.7723911266913768, -0.4431589029933968, -0.3297473946762529,
          -0.20638961705873293, -0.022479720091153996, -0.8303863804692593
        ]
      ]
    },
    {
      "inputs": [1, 1, 1, 0, 1, 0],
      "outputs": [1, 0, 0, 0],
      "biases": [
        0.015694957147045857, 0.35248847549939455, 0.8294727591472143,
        -0.45553576964256703
      ],
      "weights": [
        [
          0.7569700881793688, -0.19703283032028693, -0.39804252798531536,
          0.08945154318968296
        ],
        [
          0.09135506113017158, 0.9006414767715086, 0.8463863225992055,
          -0.67186327439492
        ],
        [
          0.7966225568139859, -0.20765720773152516, 0.2687260184550415,
          0.0389028625767887
        ],
        [
          -0.9006512864327401, -0.46358286961862705, -0.06419991854399226,
          -0.6331754238498837
        ],
        [
          0.7397932862712657, -0.2541306031205413, -0.46432736907410244,
          -0.5848492098115906
        ],
        [
          0.24534911338435295, -0.667290837463445, 0.7945124731866222,
          0.9648930439127601
        ]
      ]
    }
  ]
}